digraph Tree {
node [shape=box, style="filled, rounded", color="black", fontname=helvetica] ;
edge [fontname=helvetica] ;
0 [label="X[0] <= 2.5\ngini = 0.48\nsamples = 620\nvalue = [379, 241]", fillcolor="#f6d1b7"] ;
1 [label="X[4] <= 13.68\ngini = 0.49\nsamples = 268\nvalue = [116, 152]", fillcolor="#d0e8f9"] ;
0 -> 1 [labeldistance=2.5, labelangle=45, headlabel="True"] ;
2 [label="X[4] <= 7.75\ngini = 0.39\nsamples = 56\nvalue = [41, 15]", fillcolor="#efaf81"] ;
1 -> 2 ;
3 [label="gini = 0.0\nsamples = 7\nvalue = [7, 0]", fillcolor="#e58139"] ;
2 -> 3 ;
4 [label="X[3] <= 48.5\ngini = 0.42\nsamples = 49\nvalue = [34, 15]", fillcolor="#f0b990"] ;
2 -> 4 ;
5 [label="gini = 0.44\nsamples = 42\nvalue = [28, 14]", fillcolor="#f2c09c"] ;
4 -> 5 ;
6 [label="gini = 0.24\nsamples = 7\nvalue = [6, 1]", fillcolor="#e9965a"] ;
4 -> 6 ;
7 [label="X[3] <= 60.5\ngini = 0.46\nsamples = 212\nvalue = [75, 137]", fillcolor="#a5d3f3"] ;
1 -> 7 ;
8 [label="X[4] <= 52.28\ngini = 0.44\nsamples = 201\nvalue = [66, 135]", fillcolor="#9acdf2"] ;
7 -> 8 ;
9 [label="gini = 0.49\nsamples = 106\nvalue = [44, 62]", fillcolor="#c6e3f7"] ;
8 -> 9 ;
10 [label="gini = 0.36\nsamples = 95\nvalue = [22, 73]", fillcolor="#75bbed"] ;
8 -> 10 ;
11 [label="X[1] <= 0.5\ngini = 0.3\nsamples = 11\nvalue = [9, 2]", fillcolor="#eb9d65"] ;
7 -> 11 ;
12 [label="gini = 0.2\nsamples = 9\nvalue = [8, 1]", fillcolor="#e89152"] ;
11 -> 12 ;
13 [label="gini = 0.5\nsamples = 2\nvalue = [1, 1]", fillcolor="#ffffff"] ;
11 -> 13 ;
14 [label="X[3] <= 6.5\ngini = 0.38\nsamples = 352\nvalue = [263, 89]", fillcolor="#eeac7c"] ;
0 -> 14 [labeldistance=2.5, labelangle=-45, headlabel="False"] ;
15 [label="X[4] <= 20.17\ngini = 0.5\nsamples = 26\nvalue = [12, 14]", fillcolor="#e3f1fb"] ;
14 -> 15 ;
16 [label="gini = 0.0\nsamples = 12\nvalue = [0, 12]", fillcolor="#399de5"] ;
15 -> 16 ;
17 [label="X[4] <= 31.33\ngini = 0.24\nsamples = 14\nvalue = [12, 2]", fillcolor="#e9965a"] ;
15 -> 17 ;
18 [label="gini = 0.0\nsamples = 9\nvalue = [9, 0]", fillcolor="#e58139"] ;
17 -> 18 ;
19 [label="gini = 0.48\nsamples = 5\nvalue = [3, 2]", fillcolor="#f6d5bd"] ;
17 -> 19 ;
20 [label="X[3] <= 35.5\ngini = 0.35\nsamples = 326\nvalue = [251, 75]", fillcolor="#eda774"] ;
14 -> 20 ;
21 [label="X[1] <= 2.5\ngini = 0.39\nsamples = 267\nvalue = [197, 70]", fillcolor="#eeae7f"] ;
20 -> 21 ;
22 [label="gini = 0.4\nsamples = 249\nvalue = [180, 69]", fillcolor="#efb185"] ;
21 -> 22 ;
23 [label="gini = 0.1\nsamples = 18\nvalue = [17, 1]", fillcolor="#e78845"] ;
21 -> 23 ;
24 [label="X[4] <= 31.33\ngini = 0.16\nsamples = 59\nvalue = [54, 5]", fillcolor="#e78d4b"] ;
20 -> 24 ;
25 [label="gini = 0.1\nsamples = 55\nvalue = [52, 3]", fillcolor="#e68844"] ;
24 -> 25 ;
26 [label="gini = 0.5\nsamples = 4\nvalue = [2, 2]", fillcolor="#ffffff"] ;
24 -> 26 ;
}